{
  "neuronsInInputLayer": 9,
  "neuronsInHiddenLayer": 15,
  "neuronsInOutputLayer": 9,
  "weightsFromInputToHiddenLayer": [
    [
      0.05145302574137818,
      0.01687458091671986,
      0.023775172373218932,
      0.04026521600615712,
      0.022057058576097036,
      0.05289241799799568,
      0.039489455087727686,
      0.020998705255179093,
      0.032999382415257066,
      0.033727637255769424,
      0.041074164382765496,
      0.03479015387232942,
      0.027418329206172935,
      0.020035797001832865,
      0.018583180120344288
    ],
    [
      -0.05874840219109613,
      -0.07270287312027698,
      -0.0714848330881837,
      -0.08178120855152679,
      -0.07727063397109939,
      -0.08228312068001022,
      -0.06961009221403092,
      -0.05719928757831144,
      -0.05333526203530113,
      -0.07262708863831889,
      -0.06873668605174144,
      -0.0790647592023764,
      -0.05367198742544594,
      -0.08892047322560861,
      -0.06263446628432842
    ],
    [
      0.004929118324424186,
      -0.0018325389391564797,
      -0.004597807771438305,
      -0.012280541781547501,
      -0.01197242818598664,
      -0.003325108928666811,
      -0.016200866688445694,
      -0.01941364208804045,
      -0.01725703873795343,
      -2.8477935138834906E-4,
      -0.023034914426344272,
      0.0010276481157220681,
      0.005275216439132392,
      -0.0062155802869554725,
      -0.003590001241792454
    ],
    [
      -0.038362813698814925,
      -0.025027384712338646,
      -0.02372010932696027,
      -0.006008849117546857,
      -0.008559269042174666,
      -0.028792338463751704,
      -0.017539938105426634,
      -0.03331898911268203,
      -0.026698681713185297,
      -0.028444018970693544,
      -0.043296765921151927,
      -0.0075981017210853844,
      -0.02504228871416619,
      -0.013896257343658826,
      -0.036263442998264686
    ],
    [
      0.13269008260313442,
      0.12940024692372257,
      0.10664930433018112,
      0.08754933872825685,
      0.10138741991489907,
      0.10470747482572185,
      0.1176952147769216,
      0.11425291140706723,
      0.1328727928107462,
      0.12813714837745566,
      0.1030597458972776,
      0.10379552868972515,
      0.11434417035394091,
      0.0905825854216151,
      0.11778839317928885
    ],
    [
      -0.028939291162473662,
      -0.00465922202361005,
      3.6411545648589965E-5,
      1.1448267355891548E-4,
      -0.0051964046706219355,
      -0.0062626781319797325,
      -0.03219722157693343,
      0.0020512113411469556,
      -0.023363198044064296,
      -0.0197158844886931,
      0.00985043314093237,
      -0.003811765071750567,
      -0.01077043955329401,
      0.01362183204910224,
      -0.01778913921133683
    ],
    [
      0.009913532322931613,
      0.018287863692861756,
      0.010036876782799652,
      -0.006261430456297196,
      0.0118780320358237,
      0.0011165579610028515,
      0.019554686332524576,
      0.001841891158679393,
      0.02084789522745112,
      0.013232119446134491,
      0.0023430859593613937,
      0.004275060370883228,
      0.01920110655545694,
      0.017585891197173565,
      0.013671175877562069
    ],
    [
      -0.029509841597974824,
      -0.015039843956269632,
      -0.008353658909998715,
      0.009649069670515284,
      -0.01289699983952579,
      -0.011613707142680058,
      -0.008698515535874045,
      0.0024984802886949408,
      -0.034796323730621574,
      -0.020826940605780025,
      0.0075061437873367295,
      0.009324853578326188,
      -0.030252404779368136,
      -0.00308784184574342,
      -0.008347856744979655
    ],
    [
      0.003364053309715324,
      0.011330711663257999,
      0.004115716827407719,
      0.0025890010851093897,
      0.011755621842572722,
      0.017815664354130855,
      0.013774659647688236,
      0.008844141944205575,
      0.007855364625559245,
      0.020373452148415416,
      0.017400381906187756,
      -0.003581543740988602,
      0.008940911929005394,
      0.007325678123703078,
      0.011729159894099754
    ]
  ],
  "weightsFromHiddenToOutputLayer": [
    [
      2.2533613956929295,
      2.118782095957094,
      2.180850943765265,
      2.162703865846848,
      2.2639986048053884,
      2.1790810676314782,
      2.2233988645831744,
      2.16366082260604,
      2.193906903987662
    ],
    [
      2.2587388314132824,
      2.126211847499498,
      2.177649999138253,
      2.1577966080688333,
      2.25901154922532,
      2.1769949564897297,
      2.2213395355149133,
      2.1657273086357,
      2.1998079580520393
    ],
    [
      2.2603565541333817,
      2.120776726510462,
      2.1849162769170585,
      2.1605013634775387,
      2.2614208807086156,
      2.179305114014372,
      2.2242758332112254,
      2.171983514459814,
      2.2012514700385797
    ],
    [
      2.2551774729906024,
      2.119389281339636,
      2.186207606829591,
      2.162211422473962,
      2.258408614434575,
      2.1838454588152767,
      2.2232362183621284,
      2.1725901668714327,
      2.2113988694037667
    ],
    [
      2.2535127970628324,
      2.1222373102463203,
      2.182763902256341,
      2.1619372430768364,
      2.2659735607331557,
      2.178253605902979,
      2.227724421365133,
      2.168031819433414,
      2.201246739187775
    ],
    [
      2.2529859556150122,
      2.1234519384716597,
      2.1846095485221912,
      2.158157021744392,
      2.259930053010289,
      2.1776454859963446,
      2.231851600900316,
      2.1716864609896076,
      2.2001383169440607
    ],
    [
      2.259920209781663,
      2.117332543367295,
      2.190126557097203,
      2.1665950071284112,
      2.259093776075508,
      2.1777783629681915,
      2.2268566721419485,
      2.1695803385922248,
      2.196173896767529
    ],
    [
      2.2545344492283963,
      2.1241674259869736,
      2.186668205159512,
      2.1556709382341657,
      2.264012036216484,
      2.1814846677336748,
      2.219017368408392,
      2.1663294810268585,
      2.2073053170638133
    ],
    [
      2.2578745640830946,
      2.1224390281145697,
      2.1835018317328188,
      2.167060910049587,
      2.2608760244588195,
      2.177571635755844,
      2.227352166997463,
      2.1643712248236655,
      2.192317441206315
    ],
    [
      2.2586695878738627,
      2.1286905788639303,
      2.1878311707300266,
      2.1601585952018265,
      2.2607965004259074,
      2.175150079331141,
      2.226570789559583,
      2.1696773069907103,
      2.192261801134745
    ],
    [
      2.2570595632309423,
      2.1248791911404408,
      2.191232654266499,
      2.152509721891687,
      2.2591986951386587,
      2.1751404714739886,
      2.229566334191718,
      2.166091738343893,
      2.2053251688093582
    ],
    [
      2.2584596276877824,
      2.1230058971811245,
      2.185177817747486,
      2.1612766052687267,
      2.2629669698846846,
      2.177176040324037,
      2.2256338363091803,
      2.1682334814338193,
      2.209193169014156
    ],
    [
      2.2533571457012234,
      2.1217722536669164,
      2.186376196545696,
      2.160572410598096,
      2.2653904795725044,
      2.1763930292406455,
      2.22393260429336,
      2.169195745949901,
      2.200453800910957
    ],
    [
      2.2559714057648237,
      2.120466070095143,
      2.1908087704344252,
      2.16029020293457,
      2.2555577756456606,
      2.178324758151615,
      2.229119740866745,
      2.1756072758295564,
      2.2035947061815193
    ],
    [
      2.257679868792857,
      2.12295971664203,
      2.187640617612923,
      2.166979061647209,
      2.262496150646391,
      2.1763414102936474,
      2.219035354381549,
      2.1654829800961024,
      2.194427599914438
    ]
  ]
}
